<?xml version="1.0"?>
<opencv_storage>
<cascade>
  <stageType>BOOST</stageType>
  <featureType>HAAR</featureType>
  <height>20</height>
  <width>20</width>
  <stageParams>
    <boostType>GAB</boostType>
    <minHitRate>9.9500000476837158e-01</minHitRate>
    <maxFalseAlarm>5.0000000000000000e-01</maxFalseAlarm>
    <weightTrimRate>9.4999998807907104e-01</weightTrimRate>
    <maxDepth>1</maxDepth>
    <maxWeakCount>100</maxWeakCount></stageParams>
  <featureParams>
    <maxCatCount>0</maxCatCount>
    <featSize>1</featSize>
    <mode>BASIC</mode></featureParams>
  <stageNum>13</stageNum>
  <stages>
    <!-- stage 0 -->
    <_>
      <maxWeakCount>3</maxWeakCount>
      <stageThreshold>-1.4408776760101318e+00</stageThreshold>
      <weakClassifiers>
        <_>
          <internalNodes>
            0 -1 37 4.2535066604614258e-01</internalNodes>
          <leafValues>
            -9.6948117017745972e-01 5.1145040988922119e-01</leafValues></_>
        <_>
          <internalNodes>
            0 -1 40 2.6781450957059860e-02</internalNodes>
          <leafValues>
            -9.5221781730651855e-01 2.1582180261611938e-01</leafValues></_>
        <_>
          <internalNodes>
            0 -1 63 1.1657394468784332e-02</internalNodes>
          <leafValues>
            -6.8721830844879150e-01 7.5289303064346313e-01</leafValues></_></weakClassifiers></_>
    <!-- stage 1 -->
    <_>
      <maxWeakCount>4</maxWeakCount>
      <stageThreshold>-1.8740125894546509e+00</stageThreshold>
      <weakClassifiers>
        <_>
          <internalNodes>
            0 -1 1 1.4000277221202850e-01</internalNodes>
          <leafValues>
            -9.4695478677749634e-01 8.1250000000000000e-01</leafValues></_>
        <_>
          <internalNodes>
            0 -1 49 -1.5972015261650085e-01</internalNodes>
          <leafValues>
            8.1702965497970581e-01 -7.9072946310043335e-01</leafValues></_>
        <_>
          <internalNodes>
            0 -1 44 -7.5414078310132027e-03</internalNodes>
          <leafValues>
            6.2799829244613647e-01 -6.5492421388626099e-01</leafValues></_>
        <_>
          <internalNodes>
            0 -1 20 1.1790039017796516e-02</internalNodes>
          <leafValues>
            -7.6432663202285767e-01 5.5828714370727539e-01</leafValues></_></weakClassifiers></_>
    <!-- stage 2 -->
    <_>
      <maxWeakCount>5</maxWeakCount>
      <stageThreshold>-1.5293164253234863e+00</stageThreshold>
      <weakClassifiers>
        <_>
          <internalNodes>
            0 -1 39 1.7957593500614166e-01</internalNodes>
          <leafValues>
            -9.3657088279724121e-01 5.6190478801727295e-01</leafValues></_>
        <_>
          <internalNodes>
            0 -1 16 3.5650372505187988e-01</internalNodes>
          <leafValues>
            -7.7908670902252197e-01 5.7252776622772217e-01</leafValues></_>
        <_>
          <internalNodes>
            0 -1 31 1.7508232593536377e-01</internalNodes>
          <leafValues>
            -8.2054394483566284e-01 2.6823922991752625e-01</leafValues></_>
        <_>
          <internalNodes>
            0 -1 68 -3.8035894976928830e-04</internalNodes>
          <leafValues>
            3.6001458764076233e-01 -6.9068562984466553e-01</leafValues></_>
        <_>
          <internalNodes>
            0 -1 51 -4.5699891634285450e-03</internalNodes>
          <leafValues>
            6.9225448369979858e-01 -4.4191268086433411e-01</leafValues></_></weakClassifiers></_>
    <!-- stage 3 -->
    <_>
      <maxWeakCount>6</maxWeakCount>
      <stageThreshold>-1.9250020980834961e+00</stageThreshold>
      <weakClassifiers>
        <_>
          <internalNodes>
            0 -1 9 4.5725446939468384e-01</internalNodes>
          <leafValues>
            -9.1111111640930176e-01 7.2151899337768555e-01</leafValues></_>
        <_>
          <internalNodes>
            0 -1 5 3.2269224524497986e-02</internalNodes>
          <leafValues>
            -7.4053174257278442e-01 6.1949396133422852e-01</leafValues></_>
        <_>
          <internalNodes>
            0 -1 57 6.9694421254098415e-03</internalNodes>
          <leafValues>
            -4.9683392047882080e-01 6.1965739727020264e-01</leafValues></_>
        <_>
          <internalNodes>
            0 -1 46 -7.9890247434377670e-03</internalNodes>
          <leafValues>
            4.8310372233390808e-01 -5.5703401565551758e-01</leafValues></_>
        <_>
          <internalNodes>
            0 -1 23 -3.0651455745100975e-04</internalNodes>
          <leafValues>
            3.1223499774932861e-01 -8.4623694419860840e-01</leafValues></_>
        <_>
          <internalNodes>
            0 -1 21 2.9111527837812901e-03</internalNodes>
          <leafValues>
            -4.8262652754783630e-01 4.6827363967895508e-01</leafValues></_></weakClassifiers></_>
    <!-- stage 4 -->
    <_>
      <maxWeakCount>6</maxWeakCount>
      <stageThreshold>-1.6752103567123413e+00</stageThreshold>
      <weakClassifiers>
        <_>
          <internalNodes>
            0 -1 34 5.0247454643249512e-01</internalNodes>
          <leafValues>
            -8.9704477787017822e-01 8.4615385532379150e-01</leafValues></_>
        <_>
          <internalNodes>
            0 -1 4 1.5557852387428284e-01</internalNodes>
          <leafValues>
            -7.5954729318618774e-01 6.2690609693527222e-01</leafValues></_>
        <_>
          <internalNodes>
            0 -1 36 8.5892248898744583e-04</internalNodes>
          <leafValues>
            -6.8863046169281006e-01 2.8581994771957397e-01</leafValues></_>
        <_>
          <internalNodes>
            0 -1 60 3.6088988184928894e-02</internalNodes>
          <leafValues>
            -3.4218025207519531e-01 7.4377560615539551e-01</leafValues></_>
        <_>
          <internalNodes>
            0 -1 67 -1.0587042197585106e-03</internalNodes>
          <leafValues>
            3.6693012714385986e-01 -6.9114470481872559e-01</leafValues></_>
        <_>
          <internalNodes>
            0 -1 26 -8.7952986359596252e-03</internalNodes>
          <leafValues>
            7.4739021062850952e-01 -3.2918807864189148e-01</leafValues></_></weakClassifiers></_>
    <!-- stage 5 -->
    <_>
      <maxWeakCount>6</maxWeakCount>
      <stageThreshold>-1.6415613889694214e+00</stageThreshold>
      <weakClassifiers>
        <_>
          <internalNodes>
            0 -1 48 -2.6798468828201294e-01</internalNodes>
          <leafValues>
            6.5693430602550507e-02 -9.1606962680816650e-01</leafValues></_>
        <_>
          <internalNodes>
            0 -1 8 9.1047495603561401e-02</internalNodes>
          <leafValues>
            -7.1091562509536743e-01 3.7547639012336731e-01</leafValues></_>
        <_>
          <internalNodes>
            0 -1 30 -1.2001178693026304e-03</internalNodes>
          <leafValues>
            -8.2868558168411255e-01 1.2584175169467926e-01</leafValues></_>
        <_>
          <internalNodes>
            0 -1 32 1.7780509591102600e-01</internalNodes>
          <leafValues>
            -4.5225304365158081e-01 4.0160983800888062e-01</leafValues></_>
        <_>
          <internalNodes>
            0 -1 15 -4.2479936964809895e-03</internalNodes>
          <leafValues>
            -7.2774392366409302e-01 3.2484948635101318e-01</leafValues></_>
        <_>
          <internalNodes>
            0 -1 62 8.6223322432488203e-04</internalNodes>
          <leafValues>
            1.8571615219116211e-01 -9.2916339635848999e-01</leafValues></_></weakClassifiers></_>
    <!-- stage 6 -->
    <_>
      <maxWeakCount>7</maxWeakCount>
      <stageThreshold>-2.0234215259552002e+00</stageThreshold>
      <weakClassifiers>
        <_>
          <internalNodes>
            0 -1 10 5.1365494728088379e-01</internalNodes>
          <leafValues>
            -8.9210021495819092e-01 5.2631580829620361e-01</leafValues></_>
        <_>
          <internalNodes>
            0 -1 24 5.3085631132125854e-01</internalNodes>
          <leafValues>
            -6.9921076297760010e-01 4.5570594072341919e-01</leafValues></_>
        <_>
          <internalNodes>
            0 -1 14 -9.8352332133799791e-04</internalNodes>
          <leafValues>
            -6.8465280532836914e-01 2.0746509730815887e-01</leafValues></_>
        <_>
          <internalNodes>
            0 -1 22 3.2966129481792450e-02</internalNodes>
          <leafValues>
            -6.7163914442062378e-01 2.4554120004177094e-01</leafValues></_>
        <_>
          <internalNodes>
            0 -1 71 1.1102907359600067e-02</internalNodes>
          <leafValues>
            2.3092956840991974e-01 -8.2782822847366333e-01</leafValues></_>
        <_>
          <internalNodes>
            0 -1 61 3.0297216027975082e-02</internalNodes>
          <leafValues>
            -2.8115352988243103e-01 6.4539206027984619e-01</leafValues></_>
        <_>
          <internalNodes>
            0 -1 0 -2.8608174761757255e-04</internalNodes>
          <leafValues>
            -8.1244909763336182e-01 2.2386494278907776e-01</leafValues></_></weakClassifiers></_>
    <!-- stage 7 -->
    <_>
      <maxWeakCount>5</maxWeakCount>
      <stageThreshold>-1.4048203229904175e+00</stageThreshold>
      <weakClassifiers>
        <_>
          <internalNodes>
            0 -1 11 1.7709887027740479e-01</internalNodes>
          <leafValues>
            -8.7890255451202393e-01 7.5438594818115234e-01</leafValues></_>
        <_>
          <internalNodes>
            0 -1 47 -2.5852033495903015e-01</internalNodes>
          <leafValues>
            4.4918861985206604e-01 -7.1125197410583496e-01</leafValues></_>
        <_>
          <internalNodes>
            0 -1 29 -6.9611682556569576e-03</internalNodes>
          <leafValues>
            3.4995546936988831e-01 -5.4334902763366699e-01</leafValues></_>
        <_>
          <internalNodes>
            0 -1 66 -1.0416589677333832e-02</internalNodes>
          <leafValues>
            -9.4718825817108154e-01 1.8207414448261261e-01</leafValues></_>
        <_>
          <internalNodes>
            0 -1 52 1.6106676310300827e-02</internalNodes>
          <leafValues>
            -3.4669536352157593e-01 5.5073374509811401e-01</leafValues></_></weakClassifiers></_>
    <!-- stage 8 -->
    <_>
      <maxWeakCount>9</maxWeakCount>
      <stageThreshold>-2.3159034252166748e+00</stageThreshold>
      <weakClassifiers>
        <_>
          <internalNodes>
            0 -1 19 5.6343793869018555e-02</internalNodes>
          <leafValues>
            -8.7022900581359863e-01 3.9393940567970276e-01</leafValues></_>
        <_>
          <internalNodes>
            0 -1 50 -1.1560013145208359e-01</internalNodes>
          <leafValues>
            3.4925705194473267e-01 -6.3246804475784302e-01</leafValues></_>
        <_>
          <internalNodes>
            0 -1 55 -6.3798520714044571e-03</internalNodes>
          <leafValues>
            3.6133950948715210e-01 -4.9715518951416016e-01</leafValues></_>
        <_>
          <internalNodes>
            0 -1 45 2.2702901624143124e-03</internalNodes>
          <leafValues>
            2.1284285187721252e-01 -7.5686782598495483e-01</leafValues></_>
        <_>
          <internalNodes>
            0 -1 33 -1.3848437927663326e-02</internalNodes>
          <leafValues>
            -9.1155689954757690e-01 2.3597164452075958e-01</leafValues></_>
        <_>
          <internalNodes>
            0 -1 43 -1.3825939968228340e-03</internalNodes>
          <leafValues>
            2.6050838828086853e-01 -5.7755374908447266e-01</leafValues></_>
        <_>
          <internalNodes>
            0 -1 7 7.6950475573539734e-02</internalNodes>
          <leafValues>
            2.1530148386955261e-01 -8.7793207168579102e-01</leafValues></_>
        <_>
          <internalNodes>
            0 -1 28 8.9208246208727360e-05</internalNodes>
          <leafValues>
            -6.0643655061721802e-01 2.4514089524745941e-01</leafValues></_>
        <_>
          <internalNodes>
            0 -1 6 1.1918658856302500e-03</internalNodes>
          <leafValues>
            2.0382310450077057e-01 -8.5954207181930542e-01</leafValues></_></weakClassifiers></_>
    <!-- stage 9 -->
    <_>
      <maxWeakCount>6</maxWeakCount>
      <stageThreshold>-1.5621230602264404e+00</stageThreshold>
      <weakClassifiers>
        <_>
          <internalNodes>
            0 -1 12 1.0288220643997192e-01</internalNodes>
          <leafValues>
            -8.5288637876510620e-01 7.5000000000000000e-01</leafValues></_>
        <_>
          <internalNodes>
            0 -1 38 7.7307902276515961e-02</internalNodes>
          <leafValues>
            -6.5214765071868896e-01 4.7737973928451538e-01</leafValues></_>
        <_>
          <internalNodes>
            0 -1 70 -4.4850411359220743e-04</internalNodes>
          <leafValues>
            3.7431341409683228e-01 -4.6591800451278687e-01</leafValues></_>
        <_>
          <internalNodes>
            0 -1 59 -9.2489257454872131e-02</internalNodes>
          <leafValues>
            5.1828593015670776e-01 -3.1737700104713440e-01</leafValues></_>
        <_>
          <internalNodes>
            0 -1 35 -6.6430605947971344e-03</internalNodes>
          <leafValues>
            7.6379930973052979e-01 -2.4294866621494293e-01</leafValues></_>
        <_>
          <internalNodes>
            0 -1 65 -9.8405012977309525e-05</internalNodes>
          <leafValues>
            -7.0673966407775879e-01 2.7514919638633728e-01</leafValues></_></weakClassifiers></_>
    <!-- stage 10 -->
    <_>
      <maxWeakCount>7</maxWeakCount>
      <stageThreshold>-1.5111178159713745e+00</stageThreshold>
      <weakClassifiers>
        <_>
          <internalNodes>
            0 -1 2 2.2341023385524750e-01</internalNodes>
          <leafValues>
            -8.6046510934829712e-01 1.</leafValues></_>
        <_>
          <internalNodes>
            0 -1 3 2.2161011397838593e-01</internalNodes>
          <leafValues>
            -7.0167714357376099e-01 2.3128199577331543e-01</leafValues></_>
        <_>
          <internalNodes>
            0 -1 27 1.1033918708562851e-03</internalNodes>
          <leafValues>
            -4.5201849937438965e-01 3.9794024825096130e-01</leafValues></_>
        <_>
          <internalNodes>
            0 -1 72 9.7130378708243370e-04</internalNodes>
          <leafValues>
            2.8910046815872192e-01 -7.4569493532180786e-01</leafValues></_>
        <_>
          <internalNodes>
            0 -1 41 -1.1399656534194946e-02</internalNodes>
          <leafValues>
            6.7792785167694092e-01 -3.9385154843330383e-01</leafValues></_>
        <_>
          <internalNodes>
            0 -1 58 -1.5487840864807367e-03</internalNodes>
          <leafValues>
            3.4341537952423096e-01 -7.2689372301101685e-01</leafValues></_>
        <_>
          <internalNodes>
            0 -1 18 4.5739769935607910e-02</internalNodes>
          <leafValues>
            -5.2330112457275391e-01 4.4921541213989258e-01</leafValues></_></weakClassifiers></_>
    <!-- stage 11 -->
    <_>
      <maxWeakCount>5</maxWeakCount>
      <stageThreshold>-1.9387042522430420e+00</stageThreshold>
      <weakClassifiers>
        <_>
          <internalNodes>
            0 -1 13 1.8585500121116638e-01</internalNodes>
          <leafValues>
            -8.7793427705764771e-01 1.</leafValues></_>
        <_>
          <internalNodes>
            0 -1 64 3.3896192908287048e-03</internalNodes>
          <leafValues>
            -6.6409504413604736e-01 7.5543266534805298e-01</leafValues></_>
        <_>
          <internalNodes>
            0 -1 25 -1.9652731134556234e-04</internalNodes>
          <leafValues>
            -6.0460108518600464e-01 5.2501422166824341e-01</leafValues></_>
        <_>
          <internalNodes>
            0 -1 53 7.4292538920417428e-04</internalNodes>
          <leafValues>
            -4.0926733613014221e-01 8.5023880004882813e-01</leafValues></_>
        <_>
          <internalNodes>
            0 -1 69 -2.9219205025583506e-03</internalNodes>
          <leafValues>
            7.4545395374298096e-01 -5.1242190599441528e-01</leafValues></_></weakClassifiers></_>
    <!-- stage 12 -->
    <_>
      <maxWeakCount>4</maxWeakCount>
      <stageThreshold>-1.8800590038299561e+00</stageThreshold>
      <weakClassifiers>
        <_>
          <internalNodes>
            0 -1 56 -1.0906378738582134e-02</internalNodes>
          <leafValues>
            1. -9.1754555702209473e-01</leafValues></_>
        <_>
          <internalNodes>
            0 -1 54 5.5455649271607399e-03</internalNodes>
          <leafValues>
            -7.9729610681533813e-01 1.</leafValues></_>
        <_>
          <internalNodes>
            0 -1 17 2.1409420878626406e-04</internalNodes>
          <leafValues>
            -7.5653493404388428e-01 5.6200391054153442e-01</leafValues></_>
        <_>
          <internalNodes>
            0 -1 42 8.9690834283828735e-04</internalNodes>
          <leafValues>
            -7.0153540372848511e-01 5.9131753444671631e-01</leafValues></_></weakClassifiers></_></stages>
  <features>
    <_>
      <rects>
        <_>
          0 5 6 2 -1.</_>
        <_>
          0 6 6 1 2.</_></rects>
      <tilted>0</tilted></_>
    <_>
      <rects>
        <_>
          0 6 12 4 -1.</_>
        <_>
          6 6 6 4 2.</_></rects>
      <tilted>0</tilted></_>
    <_>
      <rects>
        <_>
          0 6 12 5 -1.</_>
        <_>
          6 6 6 5 2.</_></rects>
      <tilted>0</tilted></_>
    <_>
      <rects>
        <_>
          0 6 12 8 -1.</_>
        <_>
          6 6 6 8 2.</_></rects>
      <tilted>0</tilted></_>
    <_>
      <rects>
        <_>
          0 7 10 8 -1.</_>
        <_>
          5 7 5 8 2.</_></rects>
      <tilted>0</tilted></_>
    <_>
      <rects>
        <_>
          0 8 10 1 -1.</_>
        <_>
          5 8 5 1 2.</_></rects>
      <tilted>0</tilted></_>
    <_>
      <rects>
        <_>
          0 12 2 8 -1.</_>
        <_>
          0 12 1 4 2.</_>
        <_>
          1 16 1 4 2.</_></rects>
      <tilted>0</tilted></_>
    <_>
      <rects>
        <_>
          0 12 20 6 -1.</_>
        <_>
          10 12 10 6 2.</_></rects>
      <tilted>0</tilted></_>
    <_>
      <rects>
        <_>
          1 3 12 6 -1.</_>
        <_>
          1 3 6 3 2.</_>
        <_>
          7 6 6 3 2.</_></rects>
      <tilted>0</tilted></_>
    <_>
      <rects>
        <_>
          1 6 18 7 -1.</_>
        <_>
          7 6 6 7 3.</_></rects>
      <tilted>0</tilted></_>
    <_>
      <rects>
        <_>
          1 6 18 8 -1.</_>
        <_>
          7 6 6 8 3.</_></rects>
      <tilted>0</tilted></_>
    <_>
      <rects>
        <_>
          1 7 10 5 -1.</_>
        <_>
          6 7 5 5 2.</_></rects>
      <tilted>0</tilted></_>
    <_>
      <rects>
        <_>
          1 7 18 1 -1.</_>
        <_>
          7 7 6 1 3.</_></rects>
      <tilted>0</tilted></_>
    <_>
      <rects>
        <_>
          1 7 18 2 -1.</_>
        <_>
          7 7 6 2 3.</_></rects>
      <tilted>0</tilted></_>
    <_>
      <rects>
        <_>
          1 8 2 4 -1.</_>
        <_>
          1 10 2 2 2.</_></rects>
      <tilted>0</tilted></_>
    <_>
      <rects>
        <_>
          2 0 15 1 -1.</_>
        <_>
          7 0 5 1 3.</_></rects>
      <tilted>0</tilted></_>
    <_>
      <rects>
        <_>
          2 5 18 8 -1.</_>
        <_>
          8 5 6 8 3.</_></rects>
      <tilted>0</tilted></_>
    <_>
      <rects>
        <_>
          2 6 4 3 -1.</_>
        <_>
          4 6 2 3 2.</_></rects>
      <tilted>0</tilted></_>
    <_>
      <rects>
        <_>
          2 6 12 2 -1.</_>
        <_>
          8 6 6 2 2.</_></rects>
      <tilted>0</tilted></_>
    <_>
      <rects>
        <_>
          3 4 6 6 -1.</_>
        <_>
          3 4 3 3 2.</_>
        <_>
          6 7 3 3 2.</_></rects>
      <tilted>0</tilted></_>
    <_>
      <rects>
        <_>
          3 5 6 3 -1.</_>
        <_>
          6 5 3 3 2.</_></rects>
      <tilted>0</tilted></_>
    <_>
      <rects>
        <_>
          3 12 6 3 -1.</_>
        <_>
          5 12 2 3 3.</_></rects>
      <tilted>0</tilted></_>
    <_>
      <rects>
        <_>
          4 8 16 8 -1.</_>
        <_>
          4 8 8 4 2.</_>
        <_>
          12 12 8 4 2.</_></rects>
      <tilted>0</tilted></_>
    <_>
      <rects>
        <_>
          4 9 5 2 -1.</_>
        <_>
          4 10 5 1 2.</_></rects>
      <tilted>0</tilted></_>
    <_>
      <rects>
        <_>
          5 1 9 18 -1.</_>
        <_>
          5 7 9 6 3.</_></rects>
      <tilted>0</tilted></_>
    <_>
      <rects>
        <_>
          5 2 6 1 -1.</_>
        <_>
          7 2 2 1 3.</_></rects>
      <tilted>0</tilted></_>
    <_>
      <rects>
        <_>
          5 6 8 2 -1.</_>
        <_>
          5 6 4 1 2.</_>
        <_>
          9 7 4 1 2.</_></rects>
      <tilted>0</tilted></_>
    <_>
      <rects>
        <_>
          5 11 3 5 -1.</_>
        <_>
          6 11 1 5 3.</_></rects>
      <tilted>0</tilted></_>
    <_>
      <rects>
        <_>
          5 12 4 1 -1.</_>
        <_>
          7 12 2 1 2.</_></rects>
      <tilted>0</tilted></_>
    <_>
      <rects>
        <_>
          5 12 6 2 -1.</_>
        <_>
          5 13 6 1 2.</_></rects>
      <tilted>0</tilted></_>
    <_>
      <rects>
        <_>
          5 17 6 2 -1.</_>
        <_>
          7 17 2 2 3.</_></rects>
      <tilted>0</tilted></_>
    <_>
      <rects>
        <_>
          6 0 8 15 -1.</_>
        <_>
          6 5 8 5 3.</_></rects>
      <tilted>0</tilted></_>
    <_>
      <rects>
        <_>
          6 1 6 10 -1.</_>
        <_>
          6 6 6 5 2.</_></rects>
      <tilted>0</tilted></_>
    <_>
      <rects>
        <_>
          6 1 14 2 -1.</_>
        <_>
          13 1 7 2 2.</_></rects>
      <tilted>0</tilted></_>
    <_>
      <rects>
        <_>
          6 1 7 18 -1.</_>
        <_>
          6 7 7 6 3.</_></rects>
      <tilted>0</tilted></_>
    <_>
      <rects>
        <_>
          6 7 9 1 -1.</_>
        <_>
          9 7 3 1 3.</_></rects>
      <tilted>0</tilted></_>
    <_>
      <rects>
        <_>
          6 8 3 1 -1.</_>
        <_>
          7 8 1 1 3.</_></rects>
      <tilted>0</tilted></_>
    <_>
      <rects>
        <_>
          7 0 8 18 -1.</_>
        <_>
          7 6 8 6 3.</_></rects>
      <tilted>0</tilted></_>
    <_>
      <rects>
        <_>
          7 1 2 12 -1.</_>
        <_>
          7 7 2 6 2.</_></rects>
      <tilted>0</tilted></_>
    <_>
      <rects>
        <_>
          7 2 7 8 -1.</_>
        <_>
          7 6 7 4 2.</_></rects>
      <tilted>0</tilted></_>
    <_>
      <rects>
        <_>
          7 3 1 12 -1.</_>
        <_>
          7 7 1 4 3.</_></rects>
      <tilted>0</tilted></_>
    <_>
      <rects>
        <_>
          7 3 4 8 -1.</_>
        <_>
          7 3 2 4 2.</_>
        <_>
          9 7 2 4 2.</_></rects>
      <tilted>0</tilted></_>
    <_>
      <rects>
        <_>
          7 6 2 3 -1.</_>
        <_>
          7 7 2 1 3.</_></rects>
      <tilted>0</tilted></_>
    <_>
      <rects>
        <_>
          7 10 2 2 -1.</_>
        <_>
          7 11 2 1 2.</_></rects>
      <tilted>0</tilted></_>
    <_>
      <rects>
        <_>
          7 12 8 2 -1.</_>
        <_>
          7 13 8 1 2.</_></rects>
      <tilted>0</tilted></_>
    <_>
      <rects>
        <_>
          8 0 10 1 -1.</_>
        <_>
          13 0 5 1 2.</_></rects>
      <tilted>0</tilted></_>
    <_>
      <rects>
        <_>
          8 1 2 6 -1.</_>
        <_>
          8 3 2 2 3.</_></rects>
      <tilted>0</tilted></_>
    <_>
      <rects>
        <_>
          8 6 12 10 -1.</_>
        <_>
          14 6 6 10 2.</_></rects>
      <tilted>0</tilted></_>
    <_>
      <rects>
        <_>
          8 6 12 11 -1.</_>
        <_>
          14 6 6 11 2.</_></rects>
      <tilted>0</tilted></_>
    <_>
      <rects>
        <_>
          8 7 12 5 -1.</_>
        <_>
          14 7 6 5 2.</_></rects>
      <tilted>0</tilted></_>
    <_>
      <rects>
        <_>
          9 2 10 8 -1.</_>
        <_>
          9 2 5 4 2.</_>
        <_>
          14 6 5 4 2.</_></rects>
      <tilted>0</tilted></_>
    <_>
      <rects>
        <_>
          9 5 2 8 -1.</_>
        <_>
          9 5 1 4 2.</_>
        <_>
          10 9 1 4 2.</_></rects>
      <tilted>0</tilted></_>
    <_>
      <rects>
        <_>
          9 5 6 6 -1.</_>
        <_>
          9 5 3 3 2.</_>
        <_>
          12 8 3 3 2.</_></rects>
      <tilted>0</tilted></_>
    <_>
      <rects>
        <_>
          9 10 3 5 -1.</_>
        <_>
          10 10 1 5 3.</_></rects>
      <tilted>0</tilted></_>
    <_>
      <rects>
        <_>
          9 12 6 3 -1.</_>
        <_>
          11 12 2 3 3.</_></rects>
      <tilted>0</tilted></_>
    <_>
      <rects>
        <_>
          9 13 10 2 -1.</_>
        <_>
          14 13 5 2 2.</_></rects>
      <tilted>0</tilted></_>
    <_>
      <rects>
        <_>
          10 5 10 2 -1.</_>
        <_>
          10 5 5 1 2.</_>
        <_>
          15 6 5 1 2.</_></rects>
      <tilted>0</tilted></_>
    <_>
      <rects>
        <_>
          10 7 6 1 -1.</_>
        <_>
          12 7 2 1 3.</_></rects>
      <tilted>0</tilted></_>
    <_>
      <rects>
        <_>
          10 11 6 2 -1.</_>
        <_>
          10 12 6 1 2.</_></rects>
      <tilted>0</tilted></_>
    <_>
      <rects>
        <_>
          11 0 8 10 -1.</_>
        <_>
          11 0 4 5 2.</_>
        <_>
          15 5 4 5 2.</_></rects>
      <tilted>0</tilted></_>
    <_>
      <rects>
        <_>
          11 1 1 10 -1.</_>
        <_>
          11 6 1 5 2.</_></rects>
      <tilted>0</tilted></_>
    <_>
      <rects>
        <_>
          11 3 1 9 -1.</_>
        <_>
          11 6 1 3 3.</_></rects>
      <tilted>0</tilted></_>
    <_>
      <rects>
        <_>
          11 3 6 2 -1.</_>
        <_>
          11 3 3 1 2.</_>
        <_>
          14 4 3 1 2.</_></rects>
      <tilted>0</tilted></_>
    <_>
      <rects>
        <_>
          11 6 4 6 -1.</_>
        <_>
          11 6 2 3 2.</_>
        <_>
          13 9 2 3 2.</_></rects>
      <tilted>0</tilted></_>
    <_>
      <rects>
        <_>
          11 13 6 2 -1.</_>
        <_>
          11 13 3 1 2.</_>
        <_>
          14 14 3 1 2.</_></rects>
      <tilted>0</tilted></_>
    <_>
      <rects>
        <_>
          12 1 2 2 -1.</_>
        <_>
          12 1 1 1 2.</_>
        <_>
          13 2 1 1 2.</_></rects>
      <tilted>0</tilted></_>
    <_>
      <rects>
        <_>
          12 3 7 9 -1.</_>
        <_>
          12 6 7 3 3.</_></rects>
      <tilted>0</tilted></_>
    <_>
      <rects>
        <_>
          12 11 6 2 -1.</_>
        <_>
          12 12 6 1 2.</_></rects>
      <tilted>0</tilted></_>
    <_>
      <rects>
        <_>
          12 13 1 2 -1.</_>
        <_>
          12 14 1 1 2.</_></rects>
      <tilted>0</tilted></_>
    <_>
      <rects>
        <_>
          13 6 6 6 -1.</_>
        <_>
          13 6 3 3 2.</_>
        <_>
          16 9 3 3 2.</_></rects>
      <tilted>0</tilted></_>
    <_>
      <rects>
        <_>
          13 13 2 5 -1.</_>
        <_>
          14 13 1 5 2.</_></rects>
      <tilted>0</tilted></_>
    <_>
      <rects>
        <_>
          14 1 6 16 -1.</_>
        <_>
          14 1 3 8 2.</_>
        <_>
          17 9 3 8 2.</_></rects>
      <tilted>0</tilted></_>
    <_>
      <rects>
        <_>
          16 9 4 4 -1.</_>
        <_>
          16 9 2 2 2.</_>
        <_>
          18 11 2 2 2.</_></rects>
      <tilted>0</tilted></_></features></cascade>
</opencv_storage>
